-0.38268
0.92388
-0.38268
-0.92388
0.92388
0.38268
-0.92388
0.38268
-0.92388
-0.38268
0.92388
-0.38268
-0.38268
0.92388
-0.38268
-0.92388
-0.38268
-0.92388
0.38268
-0.92388
0.92388
-0.38268
0.92388
0.38268
0.92388
-0.38268
0.92388
0.38268
0.38268
0.92388
-0.38268
0.92388
0.92388
0.38268
0.92388
-0.38268
0.38268
-0.92388
-0.38268
-0.92388
-0.38268
0.92388
0.38268
0.92388
0.92388
0.38268
0.92388
-0.38268
-0.92388
0.38268
0.92388
0.38268
-0.38268
-0.92388
-0.38268
0.92388
-0.38268
-0.92388
-0.38268
0.92388
0.92388
-0.38268
-0.92388
-0.38268
-0.92388
-0.38268
0.92388
-0.38268
-0.38268
0.92388
-0.38268
-0.92388
-0.38268
0.92388
-0.38268
-0.92388
0.92388
0.38268
-0.92388
0.38268
0.92388
-0.38268
0.92388
0.38268
0.38268
0.92388
-0.38268
0.92388
-0.38268
-0.92388
0.38268
-0.92388
0.92388
-0.38268
0.92388
0.38268
-0.38268
0.92388
0.38268
0.92388
0.92388
0.38268
0.92388
-0.38268
0.92388
0.38268
0.92388
-0.38268
0.38268
-0.92388
-0.38268
-0.92388
-0.38268
-0.92388
-0.38268
0.92388
0.92388
-0.38268
-0.92388
-0.38268
-0.92388
0.38268
0.92388
0.38268
-0.38268
-0.92388
-0.38268
0.92388
