0.195090 -0.980785 0.831470 0.555570 -0.831470 0.555570 -0.195090 -0.980785 0.980785 0.195090 -0.555570 0.831470 -0.555570 -0.831470 0.980785 -0.195090 0.980785 0.195090 -0.555570 0.831470 -0.555570 -0.831470 0.980785 -0.195090 -0.195090 0.980785 -0.831470 -0.555570 0.831470 -0.555570 0.195090 0.980785 1.000000 0.000000 -0.000000 1.000000 -1.000000 -0.000000 0.000000 -1.000000 1.000000 0.000000 0.000000 1.000000 -1.000000 0.000000 -0.000000 -1.000000 -0.000000 1.000000 -1.000000 -0.000000 0.000000 -1.000000 1.000000 0.000000 0.000000 1.000000 -1.000000 0.000000 -0.000000 -1.000000 1.000000 -0.000000 0.195090 0.980785 -0.831470 0.555570 -0.831470 -0.555570 0.195090 -0.980785 0.980785 -0.195090 0.555570 0.831470 -0.555570 0.831470 -0.980785 -0.195090 -0.980785 0.195090 -0.555570 -0.831470 0.555570 -0.831470 0.980785 0.195090 0.195090 0.980785 -0.831470 0.555570 -0.831470 -0.555570 0.195090 -0.980785 -0.923880 0.382683 -0.923880 -0.382683 -0.382683 -0.923880 0.382683 -0.923880 0.923880 -0.382683 0.923880 0.382683 0.382683 0.923880 -0.382683 0.923880 -0.382683 -0.923880 0.382683 -0.923880 0.923880 -0.382683 0.923880 0.382683 0.382683 0.923880 -0.382683 0.923880 -0.923880 0.382683 -0.923880 -0.382683 -0.555570 -0.831470 -0.195090 -0.980785 0.195090 -0.980785 0.555570 -0.831470 0.831470 -0.555570 0.980785 -0.195090 0.980785 0.195090 0.831470 0.555570 0.831470 -0.555570 0.980785 -0.195090 0.980785 0.195090 0.831470 0.555570 0.555570 0.831470 0.195090 0.980785 -0.195090 0.980785 -0.555570 0.831470 0.707107 -0.707107 0.707107 -0.707107 0.707107 -0.707107 0.707107 -0.707107 0.707107 -0.707107 0.707107 -0.707107 0.707107 -0.707107 0.707107 -0.707107 0.707107 0.707107 0.707107 0.707107 0.707107 0.707107 0.707107 0.707107 0.707107 0.707107 0.707107 0.707107 0.707107 0.707107 0.707107 0.707107 0.831470 0.555570 0.980785 0.195090 0.980785 -0.195090 0.831470 -0.555570 0.555570 -0.831470 0.195090 -0.980785 -0.195090 -0.980785 -0.555570 -0.831470 -0.555570 0.831470 -0.195090 0.980785 0.195090 0.980785 0.555570 0.831470 0.831470 0.555570 0.980785 0.195090 0.980785 -0.195090 0.831470 -0.555570 -0.382683 0.923880 0.382683 0.923880 0.923880 0.382683 0.923880 -0.382683 0.382683 -0.923880 -0.382683 -0.923880 -0.923880 -0.382683 -0.923880 0.382683 -0.923880 -0.382683 -0.923880 0.382683 -0.382683 0.923880 0.382683 0.923880 0.923880 0.382683 0.923880 -0.382683 0.382683 -0.923880 -0.382683 -0.923880 -0.980785 -0.195090 -0.555570 0.831470 0.555570 0.831470 0.980785 -0.195090 0.195090 -0.980785 -0.831470 -0.555570 -0.831470 0.555570 0.195090 0.980785 0.195090 -0.980785 -0.831470 -0.555570 -0.831470 0.555570 0.195090 0.980785 0.980785 0.195090 0.555570 -0.831470 -0.555570 -0.831470 -0.980785 0.195090 -0.000000 -1.000000 -1.000000 0.000000 0.000000 1.000000 1.000000 0.000000 0.000000 -1.000000 -1.000000 -0.000000 -0.000000 1.000000 1.000000 0.000000 1.000000 -0.000000 -0.000000 -1.000000 -1.000000 0.000000 0.000000 1.000000 1.000000 0.000000 0.000000 -1.000000 -1.000000 -0.000000 -0.000000 1.000000 0.980785 -0.195090 -0.555570 -0.831470 -0.555570 0.831470 0.980785 0.195090 -0.195090 -0.980785 -0.831470 0.555570 0.831470 0.555570 0.195090 -0.980785 0.195090 0.980785 0.831470 -0.555570 -0.831470 -0.555570 -0.195090 0.980785 0.980785 -0.195090 -0.555570 -0.831470 -0.555570 0.831470 0.980785 0.195090 0.831470 -0.555570 0.195090 0.980785 -0.980785 -0.195090 0.555570 -0.831470 0.555570 0.831470 -0.980785 0.195090 0.195090 -0.980785 0.831470 0.555570 0.831470 -0.555570 0.195090 0.980785 -0.980785 -0.195090 0.555570 -0.831470 0.555570 0.831470 -0.980785 0.195090 0.195090 -0.980785 0.831470 0.555570 0.707107 0.707107 -0.707107 0.707107 -0.707107 -0.707107 0.707107 -0.707107 0.707107 0.707107 -0.707107 0.707107 -0.707107 -0.707107 0.707107 -0.707107 0.707107 0.707107 -0.707107 0.707107 -0.707107 -0.707107 0.707107 -0.707107 0.707107 0.707107 -0.707107 0.707107 -0.707107 -0.707107 0.707107 -0.707107 -0.555570 0.831470 -0.980785 -0.195090 -0.195090 -0.980785 0.831470 -0.555570 0.831470 0.555570 -0.195090 0.980785 -0.980785 0.195090 -0.555570 -0.831470 -0.555570 0.831470 -0.980785 -0.195090 -0.195090 -0.980785 0.831470 -0.555570 0.831470 0.555570 -0.195090 0.980785 -0.980785 0.195090 -0.555570 -0.831470 -0.923880 -0.382683 -0.382683 -0.923880 0.382683 -0.923880 0.923880 -0.382683 0.923880 0.382683 0.382683 0.923880 -0.382683 0.923880 -0.923880 0.382683 -0.923880 -0.382683 -0.382683 -0.923880 0.382683 -0.923880 0.923880 -0.382683 0.923880 0.382683 0.382683 0.923880 -0.382683 0.923880 -0.923880 0.382683 0.195090 -0.980785 0.555570 -0.831470 0.831470 -0.555570 0.980785 -0.195090 0.980785 0.195090 0.831470 0.555570 0.555570 0.831470 0.195090 0.980785 0.195090 -0.980785 0.555570 -0.831470 0.831470 -0.555570 0.980785 -0.195090 0.980785 0.195090 0.831470 0.555570 0.555570 0.831470 0.195090 0.980785 1.000000 0.000000 1.000000 0.000000 1.000000 0.000000 1.000000 0.000000 1.000000 0.000000 1.000000 0.000000 1.000000 0.000000 1.000000 0.000000 1.000000 0.000000 1.000000 0.000000 1.000000 0.000000 1.000000 0.000000 1.000000 0.000000 1.000000 0.000000 1.000000 0.000000 1.000000 0.000000 0.195090 0.980785 0.555570 0.831470 0.831470 0.555570 0.980785 0.195090 0.980785 -0.195090 0.831470 -0.555570 0.555570 -0.831470 0.195090 -0.980785 0.195090 0.980785 0.555570 0.831470 0.831470 0.555570 0.980785 0.195090 0.980785 -0.195090 0.831470 -0.555570 0.555570 -0.831470 0.195090 -0.980785 -0.923880 0.382683 -0.382683 0.923880 0.382683 0.923880 0.923880 0.382683 0.923880 -0.382683 0.382683 -0.923880 -0.382683 -0.923880 -0.923880 -0.382683 -0.923880 0.382683 -0.382683 0.923880 0.382683 0.923880 0.923880 0.382683 0.923880 -0.382683 0.382683 -0.923880 -0.382683 -0.923880 -0.923880 -0.382683 -0.555570 -0.831470 -0.980785 0.195090 -0.195090 0.980785 0.831470 0.555570 0.831470 -0.555570 -0.195090 -0.980785 -0.980785 -0.195090 -0.555570 0.831470 -0.555570 -0.831470 -0.980785 0.195090 -0.195090 0.980785 0.831470 0.555570 0.831470 -0.555570 -0.195090 -0.980785 -0.980785 -0.195090 -0.555570 0.831470 0.707107 -0.707107 -0.707107 -0.707107 -0.707107 0.707107 0.707107 0.707107 0.707107 -0.707107 -0.707107 -0.707107 -0.707107 0.707107 0.707107 0.707107 0.707107 -0.707107 -0.707107 -0.707107 -0.707107 0.707107 0.707107 0.707107 0.707107 -0.707107 -0.707107 -0.707107 -0.707107 0.707107 0.707107 0.707107 0.831470 0.555570 0.195090 -0.980785 -0.980785 0.195090 0.555570 0.831470 0.555570 -0.831470 -0.980785 -0.195090 0.195090 0.980785 0.831470 -0.555570 0.831470 0.555570 0.195090 -0.980785 -0.980785 0.195090 0.555570 0.831470 0.555570 -0.831470 -0.980785 -0.195090 0.195090 0.980785 0.831470 -0.555570 -0.000000 1.000000 -1.000000 -0.000000 0.000000 -1.000000 1.000000 0.000000 0.000000 1.000000 -1.000000 0.000000 -0.000000 -1.000000 1.000000 -0.000000 1.000000 0.000000 -0.000000 1.000000 -1.000000 -0.000000 0.000000 -1.000000 1.000000 0.000000 0.000000 1.000000 -1.000000 0.000000 -0.000000 -1.000000 -0.980785 0.195090 -0.555570 -0.831470 0.555570 -0.831470 0.980785 0.195090 0.195090 0.980785 -0.831470 0.555570 -0.831470 -0.555570 0.195090 -0.980785 0.195090 0.980785 -0.831470 0.555570 -0.831470 -0.555570 0.195090 -0.980785 0.980785 -0.195090 0.555570 0.831470 -0.555570 0.831470 -0.980785 -0.195090 -0.382683 -0.923880 0.382683 -0.923880 0.923880 -0.382683 0.923880 0.382683 0.382683 0.923880 -0.382683 0.923880 -0.923880 0.382683 -0.923880 -0.382683 -0.923880 0.382683 -0.923880 -0.382683 -0.382683 -0.923880 0.382683 -0.923880 0.923880 -0.382683 0.923880 0.382683 0.382683 0.923880 -0.382683 0.923880 0.831470 -0.555570 0.980785 -0.195090 0.980785 0.195090 0.831470 0.555570 0.555570 0.831470 0.195090 0.980785 -0.195090 0.980785 -0.555570 0.831470 -0.555570 -0.831470 -0.195090 -0.980785 0.195090 -0.980785 0.555570 -0.831470 0.831470 -0.555570 0.980785 -0.195090 0.980785 0.195090 0.831470 0.555570 0.707107 0.707107 0.707107 0.707107 0.707107 0.707107 0.707107 0.707107 0.707107 0.707107 0.707107 0.707107 0.707107 0.707107 0.707107 0.707107 0.707107 -0.707107 0.707107 -0.707107 0.707107 -0.707107 0.707107 -0.707107 0.707107 -0.707107 0.707107 -0.707107 0.707107 -0.707107 0.707107 -0.707107 -0.555570 0.831470 -0.195090 0.980785 0.195090 0.980785 0.555570 0.831470 0.831470 0.555570 0.980785 0.195090 0.980785 -0.195090 0.831470 -0.555570 0.831470 0.555570 0.980785 0.195090 0.980785 -0.195090 0.831470 -0.555570 0.555570 -0.831470 0.195090 -0.980785 -0.195090 -0.980785 -0.555570 -0.831470 -0.923880 -0.382683 -0.923880 0.382683 -0.382683 0.923880 0.382683 0.923880 0.923880 0.382683 0.923880 -0.382683 0.382683 -0.923880 -0.382683 -0.923880 -0.382683 0.923880 0.382683 0.923880 0.923880 0.382683 0.923880 -0.382683 0.382683 -0.923880 -0.382683 -0.923880 -0.923880 -0.382683 -0.923880 0.382683 0.195090 -0.980785 -0.831470 -0.555570 -0.831470 0.555570 0.195090 0.980785 0.980785 0.195090 0.555570 -0.831470 -0.555570 -0.831470 -0.980785 0.195090 -0.980785 -0.195090 -0.555570 0.831470 0.555570 0.831470 0.980785 -0.195090 0.195090 -0.980785 -0.831470 -0.555570 -0.831470 0.555570 0.195090 0.980785 1.000000 -0.000000 -0.000000 -1.000000 -1.000000 0.000000 0.000000 1.000000 1.000000 0.000000 0.000000 -1.000000 -1.000000 -0.000000 -0.000000 1.000000 -0.000000 -1.000000 -1.000000 0.000000 0.000000 1.000000 1.000000 0.000000 0.000000 -1.000000 -1.000000 -0.000000 -0.000000 1.000000 1.000000 0.000000 0.195090 0.980785 0.831470 -0.555570 -0.831470 -0.555570 -0.195090 0.980785 0.980785 -0.195090 -0.555570 -0.831470 -0.555570 0.831470 0.980785 0.195090 0.980785 -0.195090 -0.555570 -0.831470 -0.555570 0.831470 0.980785 0.195090 -0.195090 -0.980785 -0.831470 0.555570 0.831470 0.555570 0.195090 -0.980785