-0.19509
0.98079
-0.19509
-0.98079
0.55557
0.83147
-0.83147
-0.55557
0.98079
0.19509
-0.98079
0.19509
0.83147
-0.55557
-0.55557
0.83147
-0.83147
0.55557
0.55557
-0.83147
-0.19509
0.98079
-0.19509
-0.98079
0.55557
0.83147
-0.83147
-0.55557
0.98079
0.19509
-0.98079
0.19509
-0.98079
-0.19509
0.98079
-0.19509
-0.83147
0.55557
0.55557
-0.83147
-0.19509
0.98079
-0.19509
-0.98079
0.55557
0.83147
-0.83147
-0.55557
-0.55557
-0.83147
0.83147
0.55557
-0.98079
-0.19509
0.98079
-0.19509
-0.83147
0.55557
0.55557
-0.83147
-0.19509
0.98079
-0.19509
-0.98079
-0.19509
-0.98079
0.98079
0.19509
-0.55557
0.83147
-0.55557
-0.83147
0.98079
-0.19509
-0.19509
0.98079
-0.83147
-0.55557
0.83147
-0.55557
0.55557
-0.83147
0.55557
0.83147
-0.98079
0.19509
0.19509
-0.98079
0.83147
0.55557
-0.83147
0.55557
-0.19509
-0.98079
0.98079
0.19509
0.98079
-0.19509
-0.19509
0.98079
-0.83147
-0.55557
0.83147
-0.55557
0.19509
0.98079
-0.98079
-0.19509
0.55557
-0.83147
0.55557
0.83147
0.83147
0.55557
-0.83147
0.55557
-0.19509
-0.98079
0.98079
0.19509
-0.55557
0.83147
-0.55557
-0.83147
0.98079
-0.19509
-0.19509
0.98079
0.55557
0.83147
-0.55557
0.83147
-0.98079
-0.19509
-0.19509
-0.98079
0.83147
-0.55557
0.83147
0.55557
-0.19509
0.98079
-0.98079
0.19509
-0.19509
0.98079
-0.98079
0.19509
-0.55557
-0.83147
0.55557
-0.83147
0.98079
0.19509
0.19509
0.98079
-0.83147
0.55557
-0.83147
-0.55557
-0.83147
0.55557
-0.83147
-0.55557
0.19509
-0.98079
0.98079
-0.19509
0.55557
0.83147
-0.55557
0.83147
-0.98079
-0.19509
-0.19509
-0.98079
-0.98079
-0.19509
-0.19509
-0.98079
0.83147
-0.55557
0.83147
0.55557
-0.19509
0.98079
-0.98079
0.19509
-0.55557
-0.83147
0.55557
-0.83147
-0.83147
-0.55557
-0.55557
-0.83147
-0.19509
-0.98079
0.19509
-0.98079
0.55557
-0.83147
0.83147
-0.55557
0.98079
-0.19509
0.98079
0.19509
-0.19509
-0.98079
0.19509
-0.98079
0.55557
-0.83147
0.83147
-0.55557
0.98079
-0.19509
0.98079
0.19509
0.83147
0.55557
0.55557
0.83147
0.55557
-0.83147
0.83147
-0.55557
0.98079
-0.19509
0.98079
0.19509
0.83147
0.55557
0.55557
0.83147
0.19509
0.98079
-0.19509
0.98079
0.98079
-0.19509
0.98079
0.19509
0.83147
0.55557
0.55557
0.83147
0.19509
0.98079
-0.19509
0.98079
-0.55557
0.83147
-0.83147
0.55557
0.98079
0.19509
0.98079
-0.19509
0.83147
-0.55557
0.55557
-0.83147
0.19509
-0.98079
-0.19509
-0.98079
-0.55557
-0.83147
-0.83147
-0.55557
0.55557
0.83147
0.83147
0.55557
0.98079
0.19509
0.98079
-0.19509
0.83147
-0.55557
0.55557
-0.83147
0.19509
-0.98079
-0.19509
-0.98079
-0.19509
0.98079
0.19509
0.98079
0.55557
0.83147
0.83147
0.55557
0.98079
0.19509
0.98079
-0.19509
0.83147
-0.55557
0.55557
-0.83147
-0.83147
0.55557
-0.55557
0.83147
-0.19509
0.98079
0.19509
0.98079
0.55557
0.83147
0.83147
0.55557
0.98079
0.19509
0.98079
-0.19509
-0.98079
0.19509
-0.19509
0.98079
0.83147
0.55557
0.83147
-0.55557
-0.19509
-0.98079
-0.98079
-0.19509
-0.55557
0.83147
0.55557
0.83147
-0.83147
-0.55557
-0.83147
0.55557
0.19509
0.98079
0.98079
0.19509
0.55557
-0.83147
-0.55557
-0.83147
-0.98079
0.19509
-0.19509
0.98079
-0.19509
-0.98079
-0.98079
-0.19509
-0.55557
0.83147
0.55557
0.83147
0.98079
-0.19509
0.19509
-0.98079
-0.83147
-0.55557
-0.83147
0.55557
0.55557
-0.83147
-0.55557
-0.83147
-0.98079
0.19509
-0.19509
0.98079
0.83147
0.55557
0.83147
-0.55557
-0.19509
-0.98079
-0.98079
-0.19509
0.83147
-0.55557
-0.83147
-0.55557
-0.19509
0.98079
0.98079
-0.19509
-0.55557
-0.83147
-0.55557
0.83147
0.98079
0.19509
-0.19509
-0.98079
0.98079
0.19509
-0.19509
-0.98079
-0.83147
0.55557
0.83147
0.55557
0.19509
-0.98079
-0.98079
0.19509
0.55557
0.83147
0.55557
-0.83147
0.55557
0.83147
0.55557
-0.83147
-0.98079
-0.19509
0.19509
0.98079
0.83147
-0.55557
-0.83147
-0.55557
-0.19509
0.98079
0.98079
-0.19509
-0.19509
0.98079
0.98079
-0.19509
-0.55557
-0.83147
-0.55557
0.83147
0.98079
0.19509
-0.19509
-0.98079
-0.83147
0.55557
0.83147
0.55557
-0.55557
0.83147
0.83147
-0.55557
-0.98079
0.19509
0.98079
0.19509
-0.83147
-0.55557
0.55557
0.83147
-0.19509
-0.98079
-0.19509
0.98079
-0.98079
0.19509
0.98079
0.19509
-0.83147
-0.55557
0.55557
0.83147
-0.19509
-0.98079
-0.19509
0.98079
0.55557
-0.83147
-0.83147
0.55557
-0.83147
-0.55557
0.55557
0.83147
-0.19509
-0.98079
-0.19509
0.98079
0.55557
-0.83147
-0.83147
0.55557
0.98079
-0.19509
-0.98079
-0.19509
-0.19509
-0.98079
-0.19509
0.98079
0.55557
-0.83147
-0.83147
0.55557
0.98079
-0.19509
-0.98079
-0.19509
0.83147
0.55557
-0.55557
-0.83147
